|--- heavy_braking_zones <= 11.00
|   |--- Humidity <= 65.50
|   |   |--- value: [0.01]
|   |--- Humidity >  65.50
|   |   |--- TrackTemp <= 24.85
|   |   |   |--- LapInStint <= 9.50
|   |   |   |   |--- truncated branch of depth 2
|   |   |   |--- LapInStint >  9.50
|   |   |   |   |--- value: [-0.02]
|   |   |--- TrackTemp >  24.85
|   |   |   |--- value: [0.00]
|--- heavy_braking_zones >  11.00
|   |--- value: [-0.14]
